Language model created by QuickLM on Mon Dec 30 09:39:00 EST 2019
Copyright (c) 1996-2010 Carnegie Mellon University and Alexander I. Rudnicky

The model is in standard ARPA format, designed by Doug Paul while he was at MITRE.

The code that was used to produce this language model is available in Open Source.
Please visit http://www.speech.cs.cmu.edu/tools/ for more information

The (fixed) discount mass is 0.5. The backoffs are computed using the ratio method.
This model based on a corpus of 80 sentences and 82 words

\data\
ngram 1=82
ngram 2=160
ngram 3=80

\1-grams:
-2.6812 'HELLO -0.2218
-0.7782 </s> -0.3010
-0.7782 <s> -0.2218
-2.6812 ALARM -0.2218
-2.6812 ALL -0.2218
-2.6812 BACKGROUND -0.2218
-2.6812 CALENDAR -0.2218
-2.6812 CARDS -0.2218
-2.6812 CENSUS -0.2218
-2.6812 CLOCK -0.2218
-2.6812 CLOSE -0.2218
-2.6812 COCKTAILS -0.2218
-2.6812 COMPLIMENTS -0.2218
-2.6812 EARTH -0.2218
-2.6812 EASYPIX -0.2218
-2.6812 EIGHT -0.2218
-2.6812 EVENTS -0.2218
-2.6812 EYECANDY -0.2218
-2.6812 FAIREST -0.2218
-2.6812 FAX -0.2218
-2.6812 FIVE -0.2218
-2.6812 FORTUNE -0.2218
-2.6812 FOUR -0.2218
-2.6812 GAS -0.2218
-2.6812 GO -0.2218
-2.6812 HARDWARE -0.2218
-2.6812 HELLO -0.2218
-2.6812 HELP -0.2218
-2.6812 HIDE -0.2218
-2.6812 HISTORY -0.2218
-2.6812 HOROSCOPE -0.2218
-2.6812 INSULTS -0.2218
-2.6812 IS -0.2218
-2.6812 JEOPARDY -0.2218
-2.6812 LICE -0.2218
-2.6812 LOTTERY -0.2218
-2.6812 LUCY -0.2218
-2.6812 LUCY' -0.2218
-2.6812 MIRROR -0.2218
-2.6812 MODULES -0.2218
-2.6812 MOON -0.2218
-2.6812 NASA -0.2218
-2.6812 NEWSFEED -0.2218
-2.6812 NINE -0.2218
-2.6812 OF -0.2218
-2.6812 ON -0.2218
-2.6812 ONE -0.2218
-2.6812 OPEN -0.2218
-2.6812 PAGE -0.2218
-2.6812 PETFINDER -0.2218
-2.6812 PHONE -0.2218
-2.6812 PICTURES -0.2218
-2.6812 PILOTS -0.2218
-2.6812 PLEASE -0.2218
-2.6812 QUOTE -0.2218
-2.6812 SAY, -0.2218
-2.6812 SEARCHLIGHT -0.2218
-2.6812 SEVEN -0.2218
-2.6812 SHIPPING -0.2218
-2.6812 SHOW -0.2218
-2.6812 SIX -0.2218
-2.6812 SLEEP -0.2218
-2.6812 SOUNDMACHINE -0.2218
-2.6812 SPACE -0.2218
-2.6812 STATION -0.2218
-2.6812 STATS -0.2218
-2.6812 SUNRISE -0.2218
-2.6812 TEN -0.2218
-2.6812 THE -0.2218
-2.6812 THREE -0.2218
-2.6812 TIDES -0.2218
-2.6812 TIMER -0.2218
-2.6812 TO -0.2218
-2.6812 TRIVIA -0.2218
-2.6812 TWO -0.2218
-2.6812 UP -0.2218
-2.6812 VOICE -0.2218
-2.6812 WAKE -0.2218
-2.6812 WALL -0.2218
-2.6812 WEATHER -0.2218
-2.6812 WHO -0.2218
-2.6812 WIND -0.2218

\2-grams:
-0.3010 'HELLO </s> -0.3010
-2.2041 <s> 'HELLO 0.0000
-2.2041 <s> ALARM 0.0000
-2.2041 <s> ALL 0.0000
-2.2041 <s> BACKGROUND 0.0000
-2.2041 <s> CALENDAR 0.0000
-2.2041 <s> CARDS 0.0000
-2.2041 <s> CENSUS 0.0000
-2.2041 <s> CLOCK 0.0000
-2.2041 <s> CLOSE 0.0000
-2.2041 <s> COCKTAILS 0.0000
-2.2041 <s> COMPLIMENTS 0.0000
-2.2041 <s> EARTH 0.0000
-2.2041 <s> EASYPIX 0.0000
-2.2041 <s> EIGHT 0.0000
-2.2041 <s> EVENTS 0.0000
-2.2041 <s> EYECANDY 0.0000
-2.2041 <s> FAIREST 0.0000
-2.2041 <s> FAX 0.0000
-2.2041 <s> FIVE 0.0000
-2.2041 <s> FORTUNE 0.0000
-2.2041 <s> FOUR 0.0000
-2.2041 <s> GAS 0.0000
-2.2041 <s> GO 0.0000
-2.2041 <s> HARDWARE 0.0000
-2.2041 <s> HELLO 0.0000
-2.2041 <s> HELP 0.0000
-2.2041 <s> HIDE 0.0000
-2.2041 <s> HISTORY 0.0000
-2.2041 <s> HOROSCOPE 0.0000
-2.2041 <s> INSULTS 0.0000
-2.2041 <s> IS 0.0000
-2.2041 <s> JEOPARDY 0.0000
-2.2041 <s> LICE 0.0000
-2.2041 <s> LOTTERY 0.0000
-2.2041 <s> LUCY 0.0000
-2.2041 <s> LUCY' 0.0000
-2.2041 <s> MIRROR 0.0000
-2.2041 <s> MODULES 0.0000
-2.2041 <s> MOON 0.0000
-2.2041 <s> NASA 0.0000
-2.2041 <s> NEWSFEED 0.0000
-2.2041 <s> NINE 0.0000
-2.2041 <s> OF 0.0000
-2.2041 <s> ON 0.0000
-2.2041 <s> ONE 0.0000
-2.2041 <s> OPEN 0.0000
-2.2041 <s> PAGE 0.0000
-2.2041 <s> PETFINDER 0.0000
-2.2041 <s> PHONE 0.0000
-2.2041 <s> PICTURES 0.0000
-2.2041 <s> PILOTS 0.0000
-2.2041 <s> PLEASE 0.0000
-2.2041 <s> QUOTE 0.0000
-2.2041 <s> SAY, 0.0000
-2.2041 <s> SEARCHLIGHT 0.0000
-2.2041 <s> SEVEN 0.0000
-2.2041 <s> SHIPPING 0.0000
-2.2041 <s> SHOW 0.0000
-2.2041 <s> SIX 0.0000
-2.2041 <s> SLEEP 0.0000
-2.2041 <s> SOUNDMACHINE 0.0000
-2.2041 <s> SPACE 0.0000
-2.2041 <s> STATION 0.0000
-2.2041 <s> STATS 0.0000
-2.2041 <s> SUNRISE 0.0000
-2.2041 <s> TEN 0.0000
-2.2041 <s> THE 0.0000
-2.2041 <s> THREE 0.0000
-2.2041 <s> TIDES 0.0000
-2.2041 <s> TIMER 0.0000
-2.2041 <s> TO 0.0000
-2.2041 <s> TRIVIA 0.0000
-2.2041 <s> TWO 0.0000
-2.2041 <s> UP 0.0000
-2.2041 <s> VOICE 0.0000
-2.2041 <s> WAKE 0.0000
-2.2041 <s> WALL 0.0000
-2.2041 <s> WEATHER 0.0000
-2.2041 <s> WHO 0.0000
-2.2041 <s> WIND 0.0000
-0.3010 ALARM </s> -0.3010
-0.3010 ALL </s> -0.3010
-0.3010 BACKGROUND </s> -0.3010
-0.3010 CALENDAR </s> -0.3010
-0.3010 CARDS </s> -0.3010
-0.3010 CENSUS </s> -0.3010
-0.3010 CLOCK </s> -0.3010
-0.3010 CLOSE </s> -0.3010
-0.3010 COCKTAILS </s> -0.3010
-0.3010 COMPLIMENTS </s> -0.3010
-0.3010 EARTH </s> -0.3010
-0.3010 EASYPIX </s> -0.3010
-0.3010 EIGHT </s> -0.3010
-0.3010 EVENTS </s> -0.3010
-0.3010 EYECANDY </s> -0.3010
-0.3010 FAIREST </s> -0.3010
-0.3010 FAX </s> -0.3010
-0.3010 FIVE </s> -0.3010
-0.3010 FORTUNE </s> -0.3010
-0.3010 FOUR </s> -0.3010
-0.3010 GAS </s> -0.3010
-0.3010 GO </s> -0.3010
-0.3010 HARDWARE </s> -0.3010
-0.3010 HELLO </s> -0.3010
-0.3010 HELP </s> -0.3010
-0.3010 HIDE </s> -0.3010
-0.3010 HISTORY </s> -0.3010
-0.3010 HOROSCOPE </s> -0.3010
-0.3010 INSULTS </s> -0.3010
-0.3010 IS </s> -0.3010
-0.3010 JEOPARDY </s> -0.3010
-0.3010 LICE </s> -0.3010
-0.3010 LOTTERY </s> -0.3010
-0.3010 LUCY </s> -0.3010
-0.3010 LUCY' </s> -0.3010
-0.3010 MIRROR </s> -0.3010
-0.3010 MODULES </s> -0.3010
-0.3010 MOON </s> -0.3010
-0.3010 NASA </s> -0.3010
-0.3010 NEWSFEED </s> -0.3010
-0.3010 NINE </s> -0.3010
-0.3010 OF </s> -0.3010
-0.3010 ON </s> -0.3010
-0.3010 ONE </s> -0.3010
-0.3010 OPEN </s> -0.3010
-0.3010 PAGE </s> -0.3010
-0.3010 PETFINDER </s> -0.3010
-0.3010 PHONE </s> -0.3010
-0.3010 PICTURES </s> -0.3010
-0.3010 PILOTS </s> -0.3010
-0.3010 PLEASE </s> -0.3010
-0.3010 QUOTE </s> -0.3010
-0.3010 SAY, </s> -0.3010
-0.3010 SEARCHLIGHT </s> -0.3010
-0.3010 SEVEN </s> -0.3010
-0.3010 SHIPPING </s> -0.3010
-0.3010 SHOW </s> -0.3010
-0.3010 SIX </s> -0.3010
-0.3010 SLEEP </s> -0.3010
-0.3010 SOUNDMACHINE </s> -0.3010
-0.3010 SPACE </s> -0.3010
-0.3010 STATION </s> -0.3010
-0.3010 STATS </s> -0.3010
-0.3010 SUNRISE </s> -0.3010
-0.3010 TEN </s> -0.3010
-0.3010 THE </s> -0.3010
-0.3010 THREE </s> -0.3010
-0.3010 TIDES </s> -0.3010
-0.3010 TIMER </s> -0.3010
-0.3010 TO </s> -0.3010
-0.3010 TRIVIA </s> -0.3010
-0.3010 TWO </s> -0.3010
-0.3010 UP </s> -0.3010
-0.3010 VOICE </s> -0.3010
-0.3010 WAKE </s> -0.3010
-0.3010 WALL </s> -0.3010
-0.3010 WEATHER </s> -0.3010
-0.3010 WHO </s> -0.3010
-0.3010 WIND </s> -0.3010

\3-grams:
-0.3010 <s> 'HELLO </s>
-0.3010 <s> ALARM </s>
-0.3010 <s> ALL </s>
-0.3010 <s> BACKGROUND </s>
-0.3010 <s> CALENDAR </s>
-0.3010 <s> CARDS </s>
-0.3010 <s> CENSUS </s>
-0.3010 <s> CLOCK </s>
-0.3010 <s> CLOSE </s>
-0.3010 <s> COCKTAILS </s>
-0.3010 <s> COMPLIMENTS </s>
-0.3010 <s> EARTH </s>
-0.3010 <s> EASYPIX </s>
-0.3010 <s> EIGHT </s>
-0.3010 <s> EVENTS </s>
-0.3010 <s> EYECANDY </s>
-0.3010 <s> FAIREST </s>
-0.3010 <s> FAX </s>
-0.3010 <s> FIVE </s>
-0.3010 <s> FORTUNE </s>
-0.3010 <s> FOUR </s>
-0.3010 <s> GAS </s>
-0.3010 <s> GO </s>
-0.3010 <s> HARDWARE </s>
-0.3010 <s> HELLO </s>
-0.3010 <s> HELP </s>
-0.3010 <s> HIDE </s>
-0.3010 <s> HISTORY </s>
-0.3010 <s> HOROSCOPE </s>
-0.3010 <s> INSULTS </s>
-0.3010 <s> IS </s>
-0.3010 <s> JEOPARDY </s>
-0.3010 <s> LICE </s>
-0.3010 <s> LOTTERY </s>
-0.3010 <s> LUCY </s>
-0.3010 <s> LUCY' </s>
-0.3010 <s> MIRROR </s>
-0.3010 <s> MODULES </s>
-0.3010 <s> MOON </s>
-0.3010 <s> NASA </s>
-0.3010 <s> NEWSFEED </s>
-0.3010 <s> NINE </s>
-0.3010 <s> OF </s>
-0.3010 <s> ON </s>
-0.3010 <s> ONE </s>
-0.3010 <s> OPEN </s>
-0.3010 <s> PAGE </s>
-0.3010 <s> PETFINDER </s>
-0.3010 <s> PHONE </s>
-0.3010 <s> PICTURES </s>
-0.3010 <s> PILOTS </s>
-0.3010 <s> PLEASE </s>
-0.3010 <s> QUOTE </s>
-0.3010 <s> SAY, </s>
-0.3010 <s> SEARCHLIGHT </s>
-0.3010 <s> SEVEN </s>
-0.3010 <s> SHIPPING </s>
-0.3010 <s> SHOW </s>
-0.3010 <s> SIX </s>
-0.3010 <s> SLEEP </s>
-0.3010 <s> SOUNDMACHINE </s>
-0.3010 <s> SPACE </s>
-0.3010 <s> STATION </s>
-0.3010 <s> STATS </s>
-0.3010 <s> SUNRISE </s>
-0.3010 <s> TEN </s>
-0.3010 <s> THE </s>
-0.3010 <s> THREE </s>
-0.3010 <s> TIDES </s>
-0.3010 <s> TIMER </s>
-0.3010 <s> TO </s>
-0.3010 <s> TRIVIA </s>
-0.3010 <s> TWO </s>
-0.3010 <s> UP </s>
-0.3010 <s> VOICE </s>
-0.3010 <s> WAKE </s>
-0.3010 <s> WALL </s>
-0.3010 <s> WEATHER </s>
-0.3010 <s> WHO </s>
-0.3010 <s> WIND </s>

\end\
